-3.524710e+00,-2.075010e-01,-2.477720e+00,3.053360e+00,-7.873065e+00,-1.160388e+00,-3.950041e+00,-3.962172e+00,-2.514825e+00,2.826030e+00,2.677292e+00,6.177373e+00,-2.939757e+00,-1.617141e+00,1.914249e+00,4.581798e+00,5.805178e+00,-2.674114e-01,-4.524074e+00,1.406401e+00,-3.256805e+00,-2.058144e+00,-3.518766e-01,-2.803250e+00,-5.338943e+00,-3.158097e+00,-6.960402e+00,-1.614397e+00,4.634167e+00,-2.491405e+00,1.153757e+00,-2.668361e+00,8.238638e+00,-1.025881e+00,-5.793976e-01,-2.689228e+00,-7.894967e-01,-3.595607e+00,-4.649546e-01,-3.177018e-01,-9.958902e-01,-4.395930e+00,-1.048684e+00,5.010306e+00,1.237839e+00,-1.690396e-01,2.900240e+00,2.427174e+00,-6.832395e-01,1.218188e+00,-2.459079e+00,-9.625404e-01,-2.050338e+00,3.192448e+00,1.608558e+00,1.506801e+00,2.577674e+00,-4.255340e+00,1.899435e+00,3.143774e+00,1.463033e+00,-1.456253e+00,-5.450124e-01,2.786178e-01,-2.572541e+00,-5.929270e-01,-3.334846e+00,6.631534e-01,-3.902434e-01,2.804770e+00,1.395625e+00,5.079071e-01,-1.600486e+00,5.066363e-01,9.402773e-01,6.571616e+00,3.962764e+00,1.507137e+00,3.783881e+00,-1.741790e+00,-2.755936e+00,4.200438e+00,2.170192e+00,-2.700641e+00,1.794066e+01,-4.350346e+00,2.048628e-01,5.435771e+01,-2.769568e+00,2.667168e+00,5.425690e+00,2.620518e+00,3.565699e+00,-1.513634e+00,4.827591e+00,4.615659e+00,-3.434153e+00,2.611660e+00,-2.867849e+00,4.280825e+00
